-0.882372 -0.982209 -0.882372 -0.0407357 -0.882665 0.421187 -0.882372 -7.11292 -0.882372 1.39426 -0.882665 0.91939 0.400456 0.0978002 0.197637 
-1.37962 -0.576535 -1.37962 -0.263878 0.856023 -1.07467 -1.37962 -0.8809 -1.37962 -0.488508 0.856023 -0.772067 -0.932559 -0.142294 -0.945382 
-1.14795 -2.54255 -1.14795 -4.22246 -1.44973 -0.664679 -1.14795 -1.68266 -1.14795 2.13343 -1.44973 -4.6614 -0.592825 2.58457 3.97916 
-0.997362 -0.634863 -0.997362 -6.62432 -0.918259 0.513096 -0.997362 -1.86695 -0.997362 -4.0447 -0.918259 2.69262 0.783397 0.721468 0.358968 
-0.248367 -3.62241 -0.248367 -0.0815151 -0.845749 0.192363 -0.248367 -1.18836 -0.248367 -1.26159 -0.845749 0.817739 -2.27666 -2.73824 0.635807 
-0.174908 -0.965936 -0.174908 0.0668549 -2.34553 -6.56128 -0.174908 -2.46595 -0.174908 -6.0571 -2.34553 0.601701 1.8796 -0.426941 0.364088 
-1.1145 -2.56941 -1.1145 -0.904769 -1.91785 -6.96603 -1.1145 -0.453187 -1.1145 6.00044 -1.91785 1.28299 -0.151565 -0.919144 0.535767 
-0.21894 -0.634454 -0.21894 -2.35128 -0.749937 0.0825437 -0.21894 -1.24673 -0.21894 1.11581 -0.749937 -1.32748 0.615483 -3.83011 -3.4146 
-0.924614 -1.841 -0.924614 -1.52314 -0.947163 -0.639505 -0.924614 -2.22623 -0.924614 0.0476451 -0.947163 -0.237244 -0.393834 -1.32479 -0.408408 
-0.859437 -1.04223 -0.859437 -0.715613 -1.36715 -0.26643 -0.859437 -1.97189 -0.859437 -1.58795 -1.36715 0.193591 0.824927 -0.239037 -0.0562475 
