-55.3022 5.47718 5.50653 5.39618 5.50774 5.24985 5.15362 5.44487 5.30066 5.33816 5.49441 5.23626 5.40206 5.51514 5.23768 
3.64576 1.66041 2.11366 -4.17706 2.22845 98.9621 3.2652 -0.758341 2.52296 1.50405 0.607412 2.70411 1.09489 3.45708 -16.9094 
-2.54612 9.42409 -0.579066 0.728824 -0.391491 -0.187313 -0.879704 -0.601912 -0.48959 -0.412751 -0.986036 -0.0662973 -0.810172 -0.167084 -0.0843238 
4.0959 3.49938 4.30929 4.05352 3.69543 -36.083 4.26665 3.71981 4.07584 105.119 4.06791 3.55983 3.9701 3.9863 3.86517 
34.685 2.94187 -14.0117 7.32801 2.13452 -14.6316 -8.09126 -7.65975 -18.8808 -3.84 -6.96024 5.56757 9.66868 9.07614 18.2453 
-2.63632 1.94421 -1.14119 -2.09604 88.8385 -1.40412 -2.66514 -0.55279 -1.61213 -2.75204 2.62434 12.8159 -0.605502 -2.44666 1.86694 
14.7537 -20.0992 0.865913 -2.22659 23.9903 14.8734 -10.9241 -36.0678 5.69536 47.5974 8.57162 13.5415 1.00647 -19.132 7.85069 
24.9315 67.7553 -0.400714 -21.5034 75.192 -9.75483 -1.95284 -18.5241 4.17585 1.71377 2.53494 26.6172 3.16334 -2.89142 21.9097 
7.04776 6.20124 1.34737 2.68051 128.561 7.92279 3.79107 2.89933 -11.4938 -9.40589 -1.98311 2.52268 -0.664835 -3.09869 -7.25514 
21.7977 -16.0661 -10.0564 6.73922 -3.39381 -16.5232 11.6782 26.3598 -18.8001 14.3098 20.0111 -9.37012 -12.9359 6.84049 13.0844 
